digraph Tree {
node [shape=box] ;
0 [label="insulina <= 420.5\nentropy = 1.408\nsamples = 80\nvalue = [46, 18, 16]"] ;
1 [label="entropy = 0.0\nsamples = 46\nvalue = [46, 0, 0]"] ;
0 -> 1 [labeldistance=2.5, labelangle=45, headlabel="True"] ;
2 [label="glucosa <= 117.0\nentropy = 0.998\nsamples = 34\nvalue = [0, 18, 16]"] ;
0 -> 2 [labeldistance=2.5, labelangle=-45, headlabel="False"] ;
3 [label="entropy = 0.0\nsamples = 18\nvalue = [0, 18, 0]"] ;
2 -> 3 ;
4 [label="entropy = 0.0\nsamples = 16\nvalue = [0, 0, 16]"] ;
2 -> 4 ;
}